0.0471
-0.0832
0.0125
-0.0654
0.0891
-0.0213
0.0734
-0.0442
0.0058
-0.0917
0.0382
-0.0721
0.0614
-0.0119
0.0547
-0.0336
0.0924
-0.0581
0.0193
-0.0765
0.0412
-0.0883
0.0276
-0.0529
0.0698
-0.0041
0.0815
-0.0627
0.0339
-0.0294
0.0583
-0.0712
0.0146
-0.0849
0.0932
-0.0175
0.0641
-0.0493
0.0082
-0.0964
0.0317
-0.0638
0.0752
-0.0251
0.0496
-0.0384
0.0861
-0.0519
0.0224
-0.0791
0.0453
-0.0826
0.0109
-0.0673
0.0718
-0.0084
0.0843
-0.0592
0.0361
-0.0219
0.0526
-0.0743
0.0187
-0.0812
0.0967
-0.0134
0.0682
-0.0431
0.0029
-0.0928
0.0354
-0.0601
0.0789
-0.0287
0.0423
-0.0316
0.0897
-0.0554
0.0261
-0.0738
0.0489
-0.0857
0.0152
-0.0619
0.0746
-0.0053
0.0819
-0.0541
0.0394
-0.0268
0.0503
-0.0782
0.0114
-0.0876
0.0912
-0.0198
0.0625
-0.0467
0.0067
-0.0951
0.0371
-0.0614
0.0729
-0.0223
0.0461
-0.0359
0.0834
-0.0589
0.0298
-0.0704
0.0419
-0.0892
0.0173
-0.0646
0.0772
-0.0015
0.0856
-0.0523
0.0312
-0.0247
0.0561
-0.0719
0.0164
-0.0835
0.0949
-0.0102
0.0668
-0.0415
0.0094
-0.0982
0.0342
-0.0651
0.0713
-0.0274
0.0449
-0.0302
0.0811
-0.0573
0.0238
-0.0716
